12 30
the 0.027769934 0.018317282 -0.050245214 0.057302848 -0.021993827 -0.062448725 -0.005349526 -0.005091656 -0.021402106 -0.058634125 -0.030102111 0.017544188 -0.015228832 0.005012106 -0.051016666 0.027668167 -0.064860545 -0.074421324 -0.058133926 -0.021224204 -0.034558058 0.0037585273 0.013381027 -0.03989872 0.04437782 0.055028036 0.007985638 -0.031712007 0.024669457 0.025950823
to -0.24094754 -0.11177121 0.18867415 -0.003412366 0.11505191 -0.32435322 0.31424356 -0.055320553 0.17667954 -0.12568593 0.089202024 -0.066985264 0.30450782 -0.10994011 -0.37748587 -0.20071082 -0.0040928572 -0.30924726 -0.016368806 0.19638503 0.17220475 -0.03415571 -0.028283834 0.4360245 0.39699286 0.09524683 0.41486013 0.20304042 0.23042765 -0.4738255
a -0.07998861 0.28625774 -0.22359279 -0.13892622 0.06708794 0.1973018 -0.33968493 0.16767888 -0.38409925 0.28627208 0.42018837 -0.45346105 0.16348192 0.38943392 -0.39497674 0.2701425 -0.4282329 -0.27648246 -0.2252909 0.10727987 -0.183153 0.050104655 0.1379402 0.32206774 0.2835877 0.32965666 0.43616524 0.21352816 -0.3866597 -0.24051903
she -0.11600274 -0.052016735 0.4637663 0.00095419586 -0.0011179447 -0.39917785 0.45510882 -0.08035503 -0.044529423 -0.28089616 -0.09874685 -0.025533795 0.30770242 -0.31379536 0.031147346 -0.35300338 0.0755437 -0.33193088 -0.09830397 0.20072593 0.039188787 -0.17858514 -0.09853538 0.43730888 0.20268066 -0.076872766 0.36301404 0.06982105 0.050710246 -0.43153912
of -0.19229881 -0.11798012 -0.33368042 -0.12693481 0.14351164 0.34426585 -0.085015446 0.14339614 0.3712942 0.16573465 -0.00500603 -0.02353239 0.018627673 0.17065072 -0.34457716 0.28251854 -0.16185181 -0.0075807422 0.035246447 0.18643364 0.26113418 0.07047516 0.11577879 0.41604835 0.42063552 0.34445912 0.4341084 0.19596738 -0.24951535 -0.13352567
and -0.21450442 -0.12334344 -0.3495757 -0.20033284 0.19202529 0.455084 -0.34235287 0.20202881 0.3778935 0.24539338 0.0098695755 -0.044997614 -0.020839855 0.26616085 -0.20842403 0.34308702 -0.15988505 0.017754048 0.04598598 0.163117 0.35975254 0.046901036 0.16824213 0.23646976 0.3229697 0.3719412 0.26789775 0.16781923 -0.3231756 0.0714844
her -0.15046388 -0.027141385 0.44638783 -0.005057037 -0.062515356 -0.41068637 0.36247095 -0.11911638 -0.033757813 -0.35337862 0.00911276 -0.19449842 0.29694828 -0.2245771 0.013263792 -0.23162013 0.08433075 -0.23187397 -0.18151599 0.16411331 0.029135212 -0.22437407 -0.031479917 0.4158365 0.27155006 0.06782918 0.39492083 0.061560698 0.01440917 -0.3895733
it -0.12052638 0.24490044 0.38506162 0.14040712 -0.19761354 -0.3259896 0.17162897 -0.113793276 -0.24471864 -0.2860836 0.09919946 -0.41844955 0.2788558 -0.28035784 -0.0747937 -0.30739143 -0.009025559 -0.3208241 -0.32303184 0.1487672 -0.19352381 -0.21793339 -0.11462125 0.26209477 0.13105233 0.09217182 0.27996355 0.0653574 0.050278805 -0.35567704
alice -0.2386424 0.25349423 -0.17663798 0.10655297 0.04996316 -0.017695442 -0.13634753 -0.05273059 -0.25636816 0.12985305 0.16073442 -0.19781204 0.11440964 0.034054875 -0.2861926 -0.019148193 -0.13544488 -0.20556523 -0.05140815 -0.08787389 0.021975502 0.036505535 -0.0006889403 -0.1286458 0.025229618 -0.029539466 -0.02667819 0.2089155 0.10951826 0.019823208
was -0.30394265 0.35329455 0.37878728 0.36320704 -0.008417547 -0.43797296 0.3510095 -0.22615619 -0.03389511 -0.39877057 -0.2484453 -0.10419852 0.3894151 -0.42987192 -0.042007495 -0.40684634 0.16150889 -0.28566933 -0.20173326 0.14474839 0.22341807 -0.15902609 -0.08884018 0.014204636 0.26666027 -0.46988842 0.26866823 0.13952771 0.38687438 -0.37268442
in -0.30777875 0.47475708 0.38533288 0.34323487 -0.01566559 -0.3239773 0.23292996 -0.26430616 -0.11420125 -0.3862278 -0.26128072 -0.1468261 0.39992362 -0.44263273 0.006017087 -0.3346755 0.13733506 -0.26770255 -0.20347144 0.06768575 0.15823987 -0.16634998 -0.070475414 -0.10207656 0.099014245 -0.41998452 0.08627529 0.18374416 0.32726926 -0.2721006
very 0.097735465 -0.31526425 -0.28429475 0.021569077 0.12702379 0.046625778 0.25344434 -0.0700426 0.33083564 -0.05038242 0.044454202 0.34977874 0.07580286 0.08973654 -0.24284068 0.27663678 -0.08602942 0.062531754 0.10144356 0.014509983 0.32632047 0.19192573 0.20831366 0.25516814 0.40477854 -0.064448565 0.28264356 -0.03625249 0.048683017 -0.023367986
it, -0.3357029 -0.08122222 -0.29570413 -0.31188667 0.19959375 0.43555665 -0.288989 0.23632105 0.37693298 0.28024954 -0.18836035 0.11532055 -0.072220646 0.30063862 -0.17342351 0.43601042 -0.24292 0.27091843 0.2772234 0.15617558 0.44181937 0.03935132 0.1474196 0.13916034 0.33559734 0.33755034 0.14294684 0.20953889 -0.32911593 0.31404826
